<?xml version="1.0"?>
<opencv_storage>
<stage5>
  <maxWeakCount>5</maxWeakCount>
  <stageThreshold>-1.7305393218994141e+00</stageThreshold>
  <weakClassifiers>
    <_>
      <internalNodes>
        0 -1 2071128 1.0714059695601463e-02</internalNodes>
      <leafValues>
        -8.8857412338256836e-01 1.</leafValues></_>
    <_>
      <internalNodes>
        0 -1 753479 -6.0660745948553085e-03</internalNodes>
      <leafValues>
        8.8090561330318451e-02 -8.0743581056594849e-01</leafValues></_>
    <_>
      <internalNodes>
        0 -1 2901312 -6.7349774762988091e-03</internalNodes>
      <leafValues>
        1.6351912915706635e-01 -9.6168148517608643e-01</leafValues></_>
    <_>
      <internalNodes>
        0 -1 2295112 1.2030036305077374e-04</internalNodes>
      <leafValues>
        -5.4174029827117920e-01 4.9926510453224182e-01</leafValues></_>
    <_>
      <internalNodes>
        0 -1 2784066 -1.7870582640171051e-02</internalNodes>
      <leafValues>
        -1. 3.4369170665740967e-01</leafValues></_></weakClassifiers></stage5>
</opencv_storage>
