<?xml version="1.0"?>
<opencv_storage>
<cascade>
  <stageType>BOOST</stageType>
  <featureType>HAAR</featureType>
  <height>50</height>
  <width>50</width>
  <stageParams>
    <boostType>GAB</boostType>
    <minHitRate>9.9900001287460327e-01</minHitRate>
    <maxFalseAlarm>4.0000000596046448e-01</maxFalseAlarm>
    <weightTrimRate>9.4999999999999996e-01</weightTrimRate>
    <maxDepth>1</maxDepth>
    <maxWeakCount>100</maxWeakCount></stageParams>
  <featureParams>
    <maxCatCount>0</maxCatCount>
    <featSize>1</featSize>
    <mode>BASIC</mode></featureParams>
  <stageNum>9</stageNum>
  <stages>
    <!-- stage 0 -->
    <_>
      <maxWeakCount>3</maxWeakCount>
      <stageThreshold>-1.8415275812149048e+00</stageThreshold>
      <weakClassifiers>
        <_>
          <internalNodes>
            0 -1 0 -1.7593616247177124e-01</internalNodes>
          <leafValues>
            -2.0567375421524048e-01 -9.6986007690429688e-01</leafValues></_>
        <_>
          <internalNodes>
            0 -1 21 -5.0082299858331680e-02</internalNodes>
          <leafValues>
            -7.3557987809181213e-02 -9.6540826559066772e-01</leafValues></_>
        <_>
          <internalNodes>
            0 -1 3 -1.8475964898243546e-03</internalNodes>
          <leafValues>
            3.1273394823074341e-01 -7.9810953140258789e-01</leafValues></_></weakClassifiers></_>
    <!-- stage 1 -->
    <_>
      <maxWeakCount>3</maxWeakCount>
      <stageThreshold>-1.4629836082458496e+00</stageThreshold>
      <weakClassifiers>
        <_>
          <internalNodes>
            0 -1 35 1.2753564864397049e-02</internalNodes>
          <leafValues>
            -9.1576886177062988e-01 1.0204081982374191e-01</leafValues></_>
        <_>
          <internalNodes>
            0 -1 7 -1.0410107672214508e-01</internalNodes>
          <leafValues>
            1.9124324619770050e-01 -8.9592212438583374e-01</leafValues></_>
        <_>
          <internalNodes>
            0 -1 16 -1.2654718942940235e-02</internalNodes>
          <leafValues>
            5.4244095087051392e-01 -6.6910237073898315e-01</leafValues></_></weakClassifiers></_>
    <!-- stage 2 -->
    <_>
      <maxWeakCount>5</maxWeakCount>
      <stageThreshold>-1.6440457105636597e+00</stageThreshold>
      <weakClassifiers>
        <_>
          <internalNodes>
            0 -1 32 -7.8531607985496521e-02</internalNodes>
          <leafValues>
            6.4516127109527588e-02 -9.2658728361129761e-01</leafValues></_>
        <_>
          <internalNodes>
            0 -1 33 9.6866511739790440e-04</internalNodes>
          <leafValues>
            -7.6722544431686401e-01 1.6669231653213501e-01</leafValues></_>
        <_>
          <internalNodes>
            0 -1 37 3.3530960790812969e-03</internalNodes>
          <leafValues>
            -6.3241481781005859e-01 5.0233888626098633e-01</leafValues></_>
        <_>
          <internalNodes>
            0 -1 9 -1.5264803543686867e-02</internalNodes>
          <leafValues>
            2.3877151310443878e-01 -1.</leafValues></_>
        <_>
          <internalNodes>
            0 -1 19 -7.1827713400125504e-03</internalNodes>
          <leafValues>
            -9.7790867090225220e-01 4.4341036677360535e-01</leafValues></_></weakClassifiers></_>
    <!-- stage 3 -->
    <_>
      <maxWeakCount>5</maxWeakCount>
      <stageThreshold>-1.6430093050003052e+00</stageThreshold>
      <weakClassifiers>
        <_>
          <internalNodes>
            0 -1 22 8.2814076449722052e-04</internalNodes>
          <leafValues>
            -9.0567851066589355e-01 3.5483869910240173e-01</leafValues></_>
        <_>
          <internalNodes>
            0 -1 10 -1.0299693793058395e-02</internalNodes>
          <leafValues>
            8.8560461997985840e-02 -8.6624109745025635e-01</leafValues></_>
        <_>
          <internalNodes>
            0 -1 8 -3.1387992203235626e-04</internalNodes>
          <leafValues>
            6.6197532415390015e-01 -5.1786714792251587e-01</leafValues></_>
        <_>
          <internalNodes>
            0 -1 12 1.4672284014523029e-03</internalNodes>
          <leafValues>
            -7.8745734691619873e-01 4.2248138785362244e-01</leafValues></_>
        <_>
          <internalNodes>
            0 -1 1 1.5044518746435642e-02</internalNodes>
          <leafValues>
            -7.3050540685653687e-01 4.2943528294563293e-01</leafValues></_></weakClassifiers></_>
    <!-- stage 4 -->
    <_>
      <maxWeakCount>5</maxWeakCount>
      <stageThreshold>-1.3240737915039063e+00</stageThreshold>
      <weakClassifiers>
        <_>
          <internalNodes>
            0 -1 24 -6.4733182080090046e-03</internalNodes>
          <leafValues>
            7.7777779102325439e-01 -8.9733839035034180e-01</leafValues></_>
        <_>
          <internalNodes>
            0 -1 28 5.1062684506177902e-03</internalNodes>
          <leafValues>
            -8.3028060197830200e-01 2.7715831995010376e-01</leafValues></_>
        <_>
          <internalNodes>
            0 -1 18 -4.9043402075767517e-02</internalNodes>
          <leafValues>
            2.5670889019966125e-01 -9.8519653081893921e-01</leafValues></_>
        <_>
          <internalNodes>
            0 -1 30 1.5269961208105087e-02</internalNodes>
          <leafValues>
            -5.6072187423706055e-01 7.2385501861572266e-01</leafValues></_>
        <_>
          <internalNodes>
            0 -1 14 1.7209885118063539e-04</internalNodes>
          <leafValues>
            -3.9988067746162415e-01 7.4043619632720947e-01</leafValues></_></weakClassifiers></_>
    <!-- stage 5 -->
    <_>
      <maxWeakCount>5</maxWeakCount>
      <stageThreshold>-1.7305393218994141e+00</stageThreshold>
      <weakClassifiers>
        <_>
          <internalNodes>
            0 -1 25 1.0714059695601463e-02</internalNodes>
          <leafValues>
            -8.8857412338256836e-01 1.</leafValues></_>
        <_>
          <internalNodes>
            0 -1 13 -6.0660745948553085e-03</internalNodes>
          <leafValues>
            8.8090561330318451e-02 -8.0743581056594849e-01</leafValues></_>
        <_>
          <internalNodes>
            0 -1 36 -6.7349774762988091e-03</internalNodes>
          <leafValues>
            1.6351912915706635e-01 -9.6168148517608643e-01</leafValues></_>
        <_>
          <internalNodes>
            0 -1 26 1.2030036305077374e-04</internalNodes>
          <leafValues>
            -5.4174029827117920e-01 4.9926510453224182e-01</leafValues></_>
        <_>
          <internalNodes>
            0 -1 34 -1.7870582640171051e-02</internalNodes>
          <leafValues>
            -1. 3.4369170665740967e-01</leafValues></_></weakClassifiers></_>
    <!-- stage 6 -->
    <_>
      <maxWeakCount>5</maxWeakCount>
      <stageThreshold>-1.4484435319900513e+00</stageThreshold>
      <weakClassifiers>
        <_>
          <internalNodes>
            0 -1 20 -1.4509479515254498e-03</internalNodes>
          <leafValues>
            2.6666668057441711e-01 -9.0192306041717529e-01</leafValues></_>
        <_>
          <internalNodes>
            0 -1 5 -6.0082051903009415e-02</internalNodes>
          <leafValues>
            1.3003811240196228e-01 -8.2650321722030640e-01</leafValues></_>
        <_>
          <internalNodes>
            0 -1 31 -3.6080572754144669e-02</internalNodes>
          <leafValues>
            5.8935087919235229e-01 -5.4564970731735229e-01</leafValues></_>
        <_>
          <internalNodes>
            0 -1 23 8.4967468865215778e-05</internalNodes>
          <leafValues>
            -4.9046528339385986e-01 6.2750375270843506e-01</leafValues></_>
        <_>
          <internalNodes>
            0 -1 6 -1.1803604138549417e-04</internalNodes>
          <leafValues>
            3.5955640673637390e-01 -9.2231476306915283e-01</leafValues></_></weakClassifiers></_>
    <!-- stage 7 -->
    <_>
      <maxWeakCount>5</maxWeakCount>
      <stageThreshold>-1.2131767272949219e+00</stageThreshold>
      <weakClassifiers>
        <_>
          <internalNodes>
            0 -1 4 1.9031772390007973e-03</internalNodes>
          <leafValues>
            -9.0724635124206543e-01 2.5714287161827087e-01</leafValues></_>
        <_>
          <internalNodes>
            0 -1 17 -5.7450961321592331e-04</internalNodes>
          <leafValues>
            3.7927484512329102e-01 -7.2317248582839966e-01</leafValues></_>
        <_>
          <internalNodes>
            0 -1 15 -2.4488868075422943e-04</internalNodes>
          <leafValues>
            4.6437180042266846e-01 -6.2645155191421509e-01</leafValues></_>
        <_>
          <internalNodes>
            0 -1 29 -3.6956963595002890e-04</internalNodes>
          <leafValues>
            5.8955293893814087e-01 -4.9640724062919617e-01</leafValues></_>
        <_>
          <internalNodes>
            0 -1 38 -9.5328607130795717e-05</internalNodes>
          <leafValues>
            4.5414081215858459e-01 -5.8300757408142090e-01</leafValues></_></weakClassifiers></_>
    <!-- stage 8 -->
    <_>
      <maxWeakCount>3</maxWeakCount>
      <stageThreshold>-1.5231144428253174e+00</stageThreshold>
      <weakClassifiers>
        <_>
          <internalNodes>
            0 -1 11 -8.2445904612541199e-02</internalNodes>
          <leafValues>
            8.2864025546193875e-18 -9.4320487976074219e-01</leafValues></_>
        <_>
          <internalNodes>
            0 -1 27 4.3543986976146698e-02</internalNodes>
          <leafValues>
            -7.6438820362091064e-01 5.3805166482925415e-01</leafValues></_>
        <_>
          <internalNodes>
            0 -1 2 -3.3119417726993561e-02</internalNodes>
          <leafValues>
            4.8890483379364014e-01 -7.5872623920440674e-01</leafValues></_></weakClassifiers></_></stages>
  <features>
    <_>
      <rects>
        <_>
          0 0 38 24 -1.</_>
        <_>
          19 0 19 24 2.</_></rects>
      <tilted>0</tilted></_>
    <_>
      <rects>
        <_>
          0 2 18 48 -1.</_>
        <_>
          0 2 9 24 2.</_>
        <_>
          9 26 9 24 2.</_></rects>
      <tilted>0</tilted></_>
    <_>
      <rects>
        <_>
          0 2 42 4 -1.</_>
        <_>
          21 2 21 4 2.</_></rects>
      <tilted>0</tilted></_>
    <_>
      <rects>
        <_>
          0 12 10 6 -1.</_>
        <_>
          5 12 5 6 2.</_></rects>
      <tilted>0</tilted></_>
    <_>
      <rects>
        <_>
          0 20 6 4 -1.</_>
        <_>
          0 20 3 2 2.</_>
        <_>
          3 22 3 2 2.</_></rects>
      <tilted>0</tilted></_>
    <_>
      <rects>
        <_>
          1 3 22 23 -1.</_>
        <_>
          12 3 11 23 2.</_></rects>
      <tilted>0</tilted></_>
    <_>
      <rects>
        <_>
          1 48 24 2 -1.</_>
        <_>
          13 48 12 2 2.</_></rects>
      <tilted>0</tilted></_>
    <_>
      <rects>
        <_>
          2 0 34 19 -1.</_>
        <_>
          19 0 17 19 2.</_></rects>
      <tilted>0</tilted></_>
    <_>
      <rects>
        <_>
          2 13 4 2 -1.</_>
        <_>
          2 14 4 1 2.</_></rects>
      <tilted>0</tilted></_>
    <_>
      <rects>
        <_>
          4 36 6 5 -1.</_>
        <_>
          6 36 2 5 2.</_></rects>
      <tilted>0</tilted></_>
    <_>
      <rects>
        <_>
          5 5 14 9 -1.</_>
        <_>
          12 5 7 9 2.</_></rects>
      <tilted>0</tilted></_>
    <_>
      <rects>
        <_>
          6 0 30 13 -1.</_>
        <_>
          21 0 15 13 2.</_></rects>
      <tilted>0</tilted></_>
    <_>
      <rects>
        <_>
          6 11 36 26 -1.</_>
        <_>
          6 11 18 13 2.</_>
        <_>
          24 24 18 13 2.</_></rects>
      <tilted>0</tilted></_>
    <_>
      <rects>
        <_>
          6 22 14 8 -1.</_>
        <_>
          13 22 7 8 2.</_></rects>
      <tilted>0</tilted></_>
    <_>
      <rects>
        <_>
          6 26 2 2 -1.</_>
        <_>
          6 27 2 1 2.</_></rects>
      <tilted>0</tilted></_>
    <_>
      <rects>
        <_>
          6 29 1 12 -1.</_>
        <_>
          6 35 1 6 2.</_></rects>
      <tilted>0</tilted></_>
    <_>
      <rects>
        <_>
          8 0 42 6 -1.</_>
        <_>
          8 3 42 3 2.</_></rects>
      <tilted>0</tilted></_>
    <_>
      <rects>
        <_>
          8 7 10 2 -1.</_>
        <_>
          8 8 10 1 2.</_></rects>
      <tilted>0</tilted></_>
    <_>
      <rects>
        <_>
          8 23 36 26 -1.</_>
        <_>
          26 23 18 26 2.</_></rects>
      <tilted>0</tilted></_>
    <_>
      <rects>
        <_>
          8 49 9 1 -1.</_>
        <_>
          11 49 3 1 2.</_></rects>
      <tilted>0</tilted></_>
    <_>
      <rects>
        <_>
          9 10 4 4 -1.</_>
        <_>
          9 10 2 2 2.</_>
        <_>
          11 12 2 2 2.</_></rects>
      <tilted>0</tilted></_>
    <_>
      <rects>
        <_>
          13 13 26 32 -1.</_>
        <_>
          26 13 13 32 2.</_></rects>
      <tilted>0</tilted></_>
    <_>
      <rects>
        <_>
          13 20 6 2 -1.</_>
        <_>
          13 20 3 1 2.</_>
        <_>
          16 21 3 1 2.</_></rects>
      <tilted>0</tilted></_>
    <_>
      <rects>
        <_>
          13 21 1 2 -1.</_>
        <_>
          13 22 1 1 2.</_></rects>
      <tilted>0</tilted></_>
    <_>
      <rects>
        <_>
          15 44 22 4 -1.</_>
        <_>
          15 46 22 2 2.</_></rects>
      <tilted>0</tilted></_>
    <_>
      <rects>
        <_>
          21 43 16 3 -1.</_>
        <_>
          29 43 8 3 2.</_></rects>
      <tilted>0</tilted></_>
    <_>
      <rects>
        <_>
          25 15 2 4 -1.</_>
        <_>
          25 15 1 2 2.</_>
        <_>
          26 17 1 2 2.</_></rects>
      <tilted>0</tilted></_>
    <_>
      <rects>
        <_>
          26 10 6 36 -1.</_>
        <_>
          26 28 6 18 2.</_></rects>
      <tilted>0</tilted></_>
    <_>
      <rects>
        <_>
          32 17 12 22 -1.</_>
        <_>
          32 17 6 11 2.</_>
        <_>
          38 28 6 11 2.</_></rects>
      <tilted>0</tilted></_>
    <_>
      <rects>
        <_>
          32 20 8 4 -1.</_>
        <_>
          32 20 4 2 2.</_>
        <_>
          36 22 4 2 2.</_></rects>
      <tilted>0</tilted></_>
    <_>
      <rects>
        <_>
          34 1 16 7 -1.</_>
        <_>
          42 1 8 7 2.</_></rects>
      <tilted>0</tilted></_>
    <_>
      <rects>
        <_>
          35 0 15 18 -1.</_>
        <_>
          35 9 15 9 2.</_></rects>
      <tilted>0</tilted></_>
    <_>
      <rects>
        <_>
          35 0 15 24 -1.</_>
        <_>
          35 12 15 12 2.</_></rects>
      <tilted>0</tilted></_>
    <_>
      <rects>
        <_>
          35 20 6 4 -1.</_>
        <_>
          35 22 6 2 2.</_></rects>
      <tilted>0</tilted></_>
    <_>
      <rects>
        <_>
          35 42 3 8 -1.</_>
        <_>
          36 42 1 8 2.</_></rects>
      <tilted>0</tilted></_>
    <_>
      <rects>
        <_>
          36 11 14 3 -1.</_>
        <_>
          43 11 7 3 2.</_></rects>
      <tilted>0</tilted></_>
    <_>
      <rects>
        <_>
          39 48 9 2 -1.</_>
        <_>
          42 48 3 2 2.</_></rects>
      <tilted>0</tilted></_>
    <_>
      <rects>
        <_>
          42 0 8 10 -1.</_>
        <_>
          46 0 4 10 2.</_></rects>
      <tilted>0</tilted></_>
    <_>
      <rects>
        <_>
          45 36 4 10 -1.</_>
        <_>
          45 41 4 5 2.</_></rects>
      <tilted>0</tilted></_></features></cascade>
</opencv_storage>
